Language model created by QuickLM on Wed Apr 19 07:50:39 EDT 2023
Copyright (c) 1996-2010 Carnegie Mellon University and Alexander I. Rudnicky

The model is in standard ARPA format, designed by Doug Paul while he was at MITRE.

The code that was used to produce this language model is available in Open Source.
Please visit http://www.speech.cs.cmu.edu/tools/ for more information

The (fixed) discount mass is 0.5. The backoffs are computed using the ratio method.
This model based on a corpus of 64 sentences and 294 words

\data\
ngram 1=294
ngram 2=460
ngram 3=493

\1-grams:
-1.3312 </s> -0.3010
-1.3312 <s> -0.2773
-3.1374 AADDE -0.3007
-2.8363 AANAAN -0.2994
-3.1374 AANTUUN -0.3007
-2.8363 ABBAA -0.3004
-3.1374 ABBABAA -0.3007
-3.1374 ABEEBEEN -0.3007
-3.1374 ABUT -0.3007
-3.1374 ADAANACH -0.3007
-2.2923 ADDUNYAA -0.2869
-2.6602 AFRIKAA -0.2998
-3.1374 AFUR -0.2969
-3.1374 AFURITTI -0.3007
-2.8363 AFURTAMII -0.3004
-3.1374 AGARSIIFNI -0.3007
-3.1374 AKKA -0.3007
-3.1374 AKKASUMAS -0.3007
-3.1374 ALBUUDAA -0.2905
-3.1374 ALFAXIIR -0.2998
-3.1374 ALLEBALIIN -0.2998
-3.1374 AMANTII -0.3007
-3.1374 AMBAASAADDARRI -0.2963
-2.8363 AMBAASADDARRI -0.2959
-2.8363 AMEERIKAA -0.2908
-3.1374 AMEERIKAATTI -0.3004
-3.1374 ARABIYAA -0.3007
-2.8363 ARGAMU -0.2803
-3.1374 ARSENAAL -0.3004
-3.1374 ASTOONVIILAAN -0.3004
-3.1374 ATILEET -0.2905
-3.1374 ATILEETIKSII -0.2988
-3.1374 ATLEET -0.3007
-2.4384 ATLEETIKSII -0.2940
-3.1374 AVOKAADOO -0.2969
-3.1374 AWAASH -0.2905
-3.1374 AYYAANNI -0.3007
-3.1374 BAANKI -0.3007
-2.4384 BAANKII -0.2994
-3.1374 BAANKIIN -0.3007
-3.1374 BAHAA -0.2969
-3.1374 BANKII -0.3007
-2.8363 BARA -0.3001
-3.1374 BEEKSISU -0.3007
-3.1374 BEETKIINGII -0.3007
-2.6602 BIIROO -0.2979
-3.1374 BIQILAA -0.3007
-3.1374 BIRRII -0.3007
-3.1374 BIYYAALESSAA -0.2963
-2.8363 BIYYOOTA -0.2950
-3.1374 BOORANAA -0.2905
-3.1374 BULCHAAN -0.3007
-3.1374 BUNA -0.2963
-3.1374 BUUFATAALEE -0.3007
-3.1374 CAALAAN -0.2998
-3.1374 CHAAYINAA -0.2905
-3.1374 CHAAYINAATTI -0.3007
-3.1374 DAANDIRRAA -0.3007
-3.1374 DAASHAN -0.2905
-2.5353 DAAYREEKTARRI -0.2988
-3.1374 DAAYREKTARRI -0.3007
-3.1374 DALADALA -0.2963
-3.1374 DALDAALAA -0.2969
-2.8363 DALDALAA -0.2966
-3.1374 DARBU -0.3004
-2.6602 DAWWATAN -0.2803
-3.1374 DEEGGARSA -0.3007
-2.8363 DEETAAN -0.2972
-2.8363 DEETTAAN -0.2969
-3.1374 DHAABBANNI -0.3007
-2.8363 DHAABBATA -0.2982
-3.1374 DHALATTUU -0.2963
-3.1374 DHEERAA -0.2905
-3.1374 DHIBBA -0.3007
-3.1374 DHIBEEN -0.3007
-3.1374 DHIMMA -0.3007
-2.8363 DIGDAMAA -0.3001
-2.8363 DIGDAMII -0.3001
-3.1374 DIIDIYAR -0.3007
-3.1374 DIROOGBAAN -0.3007
-3.1374 DOOKTAR -0.3007
-2.8363 DORGOMMII -0.2998
-2.5353 DORGOMMIIN -0.2943
-3.1374 DUBARTOOTA -0.2998
-2.5353 DURFAMU -0.2927
-3.1374 EDA -0.3004
-3.1374 EEGALUUFI -0.3007
-3.1374 EEGUMSA -0.2982
-1.6188 EENYU -0.2729
-2.1831 EESSA -0.2979
-3.1374 EESSAF -0.3007
-2.8363 EESSAN -0.2969
-3.1374 EESSATI -0.3004
-1.8821 EESSATTI -0.2733
-3.1374 ERGUF -0.2803
-3.1374 FAGEENYA -0.3007
-3.1374 FARANSAAY -0.2966
-2.1831 FAYYAA -0.2813
-3.1374 FEDEREESHINII -0.2994
-2.0234 FI -0.2950
-2.2923 FIIGICHA -0.2982
-2.8363 FINFINNEE -0.2901
-3.1374 FINFINNEETTI -0.2998
-3.1374 FOONII -0.3004
-3.1374 FURDISA -0.3007
-3.1374 FUULDURAA -0.3007
-3.1374 GABAA -0.2969
-3.1374 GABREMASQAL -0.3007
-2.6602 GADII -0.2998
-2.8363 GAGGEEFAME -0.2803
-2.0234 GAGGEEFFAME -0.2803
-3.1374 GAGGEEFFAMEE -0.2803
-3.1374 GAGGEFFAME -0.2803
-2.5353 GALAN -0.2803
-3.1374 GALGALA -0.3007
-3.1374 GALTEEWWAN -0.2966
-2.8363 GARA -0.2982
-3.1374 GARAAGARAA -0.3007
-2.8363 GAREEN -0.3001
-3.1374 GIDDUGALEESSA -0.3001
-3.1374 GOCHUUN -0.3001
-3.1374 GODINA -0.3007
-3.1374 GOLOBE -0.3007
-3.1374 GULAALLII -0.3007
-3.1374 GURRAANDHALA -0.3007
-3.1374 GUUTUU -0.3007
-3.1374 GUYYAA -0.3007
-3.1374 HAARAA -0.2998
-3.1374 HALKAN -0.3007
-3.1374 HAMZAAN -0.2998
-2.8363 HAR’A -0.2943
-3.1374 HIDHAMIINSA -0.3007
-2.8363 HOGGANAA -0.2994
-3.1374 HOGGANAAN -0.3001
-2.8363 HOJII -0.2966
-3.1374 HOOLAAND -0.3001
-3.1374 HOOSPITAALASAA -0.2966
-3.1374 HOTEELA -0.2953
-2.8363 IDIL -0.2988
-3.1374 II -0.3004
-3.1374 IID -0.3007
-2.8363 INDAASTIRII -0.3001
-3.1374 INGILIIZ -0.3007
-3.1374 INGILIZ -0.3007
-3.1374 INJIFANNOON -0.3007
-3.1374 INJIFATEE -0.2803
-3.1374 INTARNASHINAALII -0.2998
-3.1374 ISLAAMUMMAA -0.2963
-3.1374 ISTAADIYEEMII -0.2953
-3.1374 ITIYOOPHIYAA -0.2905
-3.1374 ITOOPHIYAA -0.2905
-3.1374 ITTAANAAN -0.3004
-2.5353 ITTI -0.2998
-1.9613 ITYOOPHIYAA -0.2872
-3.1374 ITYOOPHIYAAN -0.3007
-3.1374 ITYOOPHIYAATTI -0.3004
-3.1374 JAHA -0.3007
-3.1374 JALDEESSARRAA -0.3007
-2.5353 JEDHAMA -0.2803
-3.1374 JEDHAMTII -0.2803
-3.1374 JEDHAMTU -0.2803
-1.9912 JEDHAMU -0.2800
-2.8363 JEDHAMUU -0.2803
-3.1374 JILA -0.2994
-2.3592 JILLI -0.2975
-2.8363 KALAQAA -0.2862
-3.1374 KALEESSA -0.2966
-2.6602 KAN -0.3001
-3.1374 KANA -0.2982
-3.1374 KANTIBAA -0.2966
-3.1374 KANTIIBAAN -0.2966
-3.1374 KENNUU -0.3007
-2.8363 KIBBAA -0.2963
-3.1374 KIILOO -0.3007
-3.1374 KILABIIN -0.3007
-3.1374 KILABNI -0.3007
-3.1374 KILOOMETIRAA -0.3007
-3.1374 KOLOMBIYAA -0.2966
-3.1374 KOMINIKEESHINII -0.3007
-3.1374 KOORIYAA -0.2953
-2.8363 KUBBAA -0.3004
-2.6602 KUDHA -0.2998
-3.1374 KUDHAA -0.3001
-3.1374 KUDHAN -0.3004
-2.6602 KUMA -0.2998
-3.1374 LAATEE -0.2803
-3.1374 LAMA -0.3007
-2.6602 LAMAA -0.2966
-3.1374 LAMMUMMAAN -0.3007
-2.8363 LEENJISAA -0.3004
-3.1374 LEENJISAAN -0.2988
-2.6602 LIIGII -0.2950
-3.1374 LIYAA -0.3007
-3.1374 LOONII -0.2982
-2.8363 MAALLAQAA -0.2905
-3.1374 MAAMILAA -0.2994
-3.1374 MAANGOO -0.3007
-2.5353 MAARAATOONII -0.2937
-3.1374 MAARIYYEE -0.2966
-1.9912 MAGAALAA -0.2911
-3.1374 MALAAKUU -0.3007
-3.1374 MALLATTOO -0.3004
-2.8363 MANA -0.3004
-3.1374 MARAATOONII -0.3007
-3.1374 MAREE -0.3004
-2.6602 MARSAA -0.3001
-3.1374 MEEDIKAALAA -0.2905
-3.1374 MEESHAALEE -0.3007
-3.1374 MEETIRA -0.3007
-3.1374 MIILAA -0.3007
-3.1374 MIILIYOONA -0.3007
-3.1374 MIILLAA -0.3001
-3.1374 MINISIRRI -0.2982
-2.1831 MINISTEERA -0.2956
-2.6602 MINISTIR -0.2998
-2.5353 MINISTIRA -0.2975
-3.1374 MINISTIRAA -0.2963
-3.1374 MINISTIRI -0.3004
-2.6602 MINISTIRRI -0.2982
-3.1374 MISOOMA -0.3007
-3.1374 MOOTUMMAA -0.2905
-2.8363 MUUDE -0.2905
-3.1374 MUUMMEEN -0.3007
-3.1374 MUUZII, -0.3007
-3.1374 NAANNAWAA -0.3004
-2.8363 NAANNOO -0.2947
-3.1374 NAMATTI -0.3007
-3.1374 NYAATAA -0.2969
-2.8363 OBBO -0.3004
-3.1374 OLAANAA -0.3007
-2.8363 OLAANAAN -0.3001
-3.1374 OLAANTUUN -0.3004
-3.1374 OOMISHA -0.3007
-3.1374 OOMISHAALEE -0.3007
-2.5353 OROMIYAA -0.2895
-3.1374 ORTODOKSII -0.3007
-2.8363 PREEZDAANTII -0.2991
-2.6602 PREEZDAANTIIN -0.2988
-3.1374 PRIIMAYEER -0.3001
-3.1374 QABEENYAA -0.3007
-2.8363 QOPHEESSUMMAA -0.3004
-3.1374 QORANNOO -0.3004
-3.1374 QORICHAA -0.2963
-3.1374 RAAWWACHIISAA -0.3004
-3.1374 RIILEE -0.2963
-3.1374 SAA -0.3007
-3.1374 SAAMEE -0.2803
-3.1374 SABABEEFFACHUUN -0.2982
-3.1374 SADAAFFAAN -0.2953
-2.6602 SADAFFAAN -0.2959
-3.1374 SADDEETAAFFAA -0.2966
-3.1374 SADDEETAFFAA -0.3004
-3.1374 SADDEETAFFAAN -0.3004
-2.8363 SADII -0.2994
-3.1374 SALPHAA -0.2982
-3.1374 SANBAREE -0.3007
-3.1374 SARARA -0.3007
-3.1374 SEEKAAFAA -0.3001
-2.6602 SHAAMPIYOONAA -0.2969
-3.1374 SHAAMPIYOONSI -0.3001
-3.1374 SHAN -0.3007
-3.1374 SHANAAFFAA -0.2953
-3.1374 SHEEHI -0.3007
-3.1374 SHORORKEESSAA -0.3007
-3.1374 SIINQEE -0.3007
-3.1374 SODDOMII -0.3007
-3.1374 TAADDASAATIN -0.2998
-3.1374 TAASIISUUN -0.3001
-3.1374 TAATEE -0.3007
-3.1374 TAAYITAA -0.3007
-3.1374 TAFARIIN -0.2988
-2.6602 TAJAAJILA -0.2988
-3.1374 TAPHA -0.3007
-3.1374 TAPHATAAN -0.3007
-3.1374 TEEKNOOLOOJII, -0.3004
-3.1374 TILMAMAMU -0.3007
-3.1374 TOANNOO -0.3007
-3.1374 TOKKO -0.3007
-3.1374 TORBAATAMII -0.3007
-3.1374 TORBAFFAAN -0.2966
-3.1374 TUQAA -0.3007
-3.1374 UD -0.3007
-2.6602 UMRII -0.2998
-3.1374 USAID -0.3007
-3.1374 WAANCAA -0.2988
-2.5353 WAGGAA -0.2988
-3.1374 WALAKKAA -0.2998
-2.8363 WALIIGALAA -0.3001
-3.1374 WALITTI -0.3007
-3.1374 WALTAJJII -0.3001
-3.1374 WAREEGAMTOOTAA -0.3007
-3.1374 WARSHAALEE -0.2969
-3.1374 YAA -0.3007
-3.1374 YAADANNO -0.3007

\2-grams:
-2.1072 <s> AMEERIKAATTI 0.0000
-2.1072 <s> ATLEET 0.0000
-2.1072 <s> AYYAANNI 0.0000
-2.1072 <s> BAANKIIN 0.0000
-2.1072 <s> BIIROO -0.1249
-2.1072 <s> BULCHAAN 0.0000
-2.1072 <s> CHAAYINAATTI 0.0000
-1.6301 <s> DAAYREEKTARRI -0.0969
-2.1072 <s> DAAYREKTARRI 0.0000
-2.1072 <s> DHAABBANNI 0.0000
-2.1072 <s> DHALATTUU 0.0000
-2.1072 <s> DHIBEEN 0.0000
-2.1072 <s> DIIDIYAR 0.0000
-1.8062 <s> DORGOMMII 0.0000
-1.5051 <s> DORGOMMIIN 0.0000
-1.4082 <s> FIIGICHA -0.1091
-1.8062 <s> GAREEN 0.0000
-1.8062 <s> HOGGANAA 0.0000
-2.1072 <s> HOGGANAAN 0.0000
-2.1072 <s> HOJII -0.1761
-1.8062 <s> ITTI -0.0969
-2.1072 <s> ITYOOPHIYAAN 0.0000
-2.1072 <s> ITYOOPHIYAATTI 0.0000
-2.1072 <s> JILA 0.0000
-1.3291 <s> JILLI 0.0000
-2.1072 <s> KANTIIBAAN 0.0000
-2.1072 <s> KILABIIN 0.0000
-2.1072 <s> KILABNI 0.0000
-2.1072 <s> LEENJISAAN 0.0000
-2.1072 <s> MINISIRRI 0.0000
-1.6301 <s> MINISTIR 0.0000
-2.1072 <s> MINISTIRI 0.0000
-1.6301 <s> MINISTIRRI 0.0000
-2.1072 <s> MUUMMEEN 0.0000
-2.1072 <s> PREEZDAANTII -0.1761
-1.6301 <s> PREEZDAANTIIN 0.0000
-2.1072 <s> SHAAMPIYOONSI 0.0000
-2.1072 <s> TAPHA 0.0000
-2.1072 <s> TAPHATAAN 0.0000
-2.1072 <s> YAA 0.0000
-0.3010 AADDE ADAANACH 0.0000
-0.6021 AANAAN BIIROO -0.1249
-0.6021 AANAAN PREEZDAANTII -0.1761
-0.3010 AANTUUN KANTIBAA 0.0000
-0.6021 ABBAA QABEENYAA 0.0000
-0.6021 ABBAA TAAYITAA 0.0000
-0.3010 ABBABAA BIQILAA 0.0000
-0.3010 ABEEBEEN GUYYAA 0.0000
-0.3010 ABUT WARSHAALEE 0.0000
-0.3010 ADAANACH ABEEBEEN 0.0000
-1.1461 ADDUNYAA BARA 0.0000
-1.1461 ADDUNYAA EENYU -0.2058
-1.1461 ADDUNYAA HAR’A -0.1761
-1.1461 ADDUNYAA KUDHA -0.2218
-1.1461 ADDUNYAA TORBAATAMII 0.0000
-0.8451 ADDUNYAA UMRII 0.0000
-0.4771 AFRIKAA KIBBAA 0.0000
-0.7782 AFRIKAA QOPHEESSUMMAA 0.0000
-0.3010 AFUR FI -0.2840
-0.3010 AFURITTI TILMAMAMU 0.0000
-0.6021 AFURTAMII SADAAFFAAN 0.0000
-0.6021 AFURTAMII SADDEETAFFAA 0.0000
-0.3010 AGARSIIFNI TEEKNOOLOOJII, 0.0000
-0.3010 AKKA MUUZII, 0.0000
-0.3010 AKKASUMAS OOMISHA 0.0000
-0.3010 ALBUUDAA EENYU -0.2139
-0.3010 ALFAXIIR WAGGAA -0.2430
-0.3010 ALLEBALIIN DURFAMU -0.2430
-0.3010 AMANTII ORTODOKSII 0.0000
-0.3010 AMBAASAADDARRI ITYOOPHIYAA -0.1461
-0.6021 AMBAASADDARRI CHAAYINAA 0.0000
-0.6021 AMBAASADDARRI ITYOOPHIYAA -0.1461
-0.6021 AMEERIKAA EESSATTI -0.1427
-0.6021 AMEERIKAA MAGAALAA -0.1549
-0.3010 AMEERIKAATTI AMBAASADDARRI -0.1761
-0.3010 ARABIYAA SHEEHI 0.0000
-0.3010 ARGAMU </s> -0.3010
-0.3010 ARSENAAL LEENJISAA -0.1761
-0.3010 ASTOONVIILAAN LEENJISAA -0.1761
-0.3010 ATILEET EENYU -0.2944
-0.3010 ATILEETIKSII ADDUNYAA -0.2688
-0.3010 ATLEET SANBAREE 0.0000
-1.0000 ATLEETIKSII ADDUNYAA -0.2341
-0.3979 ATLEETIKSII ITYOOPHIYAA -0.0544
-0.3010 AVOKAADOO FI -0.2840
-0.3010 AWAASH EENYU -0.2058
-0.3010 AYYAANNI IID 0.0000
-0.3010 BAANKI AWAASH 0.0000
-1.0000 BAANKII DAASHAN 0.0000
-1.0000 BAANKII DALADALA 0.0000
-1.0000 BAANKII GUUTUU 0.0000
-1.0000 BAANKII INTARNASHINAALII 0.0000
-1.0000 BAANKII MISOOMA 0.0000
-0.3010 BAANKIIN SIINQEE 0.0000
-0.3010 BAHAA FI -0.2840
-0.3010 BANKII BIYYAALESSAA 0.0000
-0.3010 BARA KUMA -0.1249
-0.3010 BEEKSISU HOTEELA 0.0000
-0.3010 BEETKIINGII PRIIMAYEER 0.0000
-0.7782 BIIROO EEGUMSA 0.0000
-0.4771 BIIROO FAYYAA -0.2218
-0.3010 BIQILAA SODDOMII 0.0000
-0.3010 BIRRII MIILIYOONA 0.0000
-0.3010 BIYYAALESSAA ITYOOPHIYAA -0.1461
-0.6021 BIYYOOTA BAHAA 0.0000
-0.6021 BIYYOOTA EESSATTI -0.2888
-0.3010 BOORANAA EENYU -0.2739
-0.3010 BULCHAAN GODINA 0.0000
-0.3010 BUNA ITYOOPHIYAA -0.1461
-0.3010 BUUFATAALEE FURDISA 0.0000
-0.3010 CAALAAN DURFAMU -0.2430
-0.3010 CHAAYINAA EENYU -0.2139
-0.3010 CHAAYINAATTI AMBAASAADDARRI 0.0000
-0.3010 DAANDIRRAA WALAKKAA 0.0000
-0.3010 DAASHAN EENYU -0.2058
-0.9031 DAAYREEKTARRI GABAA 0.0000
-0.9031 DAAYREEKTARRI OLAANAAN -0.1761
-0.9031 DAAYREEKTARRI OLAANTUUN 0.0000
-0.9031 DAAYREEKTARRI TAJAAJILA -0.2218
-0.3010 DAAYREKTARRI TOANNOO 0.0000
-0.3010 DALADALA ITYOOPHIYAA -0.1461
-0.3010 DALDAALAA FI -0.2840
-0.6021 DALDALAA FI -0.2840
-0.6021 DALDALAA HAARAA 0.0000
-0.3010 DARBU BIYYOOTA -0.1761
-0.3010 DAWWATAN </s> -0.3010
-0.3010 DEEGGARSA MEESHAALEE 0.0000
-0.6021 DEETAAN MINISTEERA -0.1919
-0.6021 DEETAAN TAJAAJILA -0.2218
-0.6021 DEETTAAN MINISTEERA -0.1919
-0.6021 DEETTAAN MINISTIRA -0.2430
-0.3010 DHAABBANNI USAID 0.0000
-0.3010 DHAABBATA FAYYAA -0.2499
-0.3010 DHALATTUU ITYOOPHIYAA -0.2863
-0.3010 DHEERAA EENYU -0.2139
-0.3010 DHIBBA AFUR 0.0000
-0.3010 DHIBEEN MAARIYYEE 0.0000
-0.3010 DHIMMA ISLAAMUMMAA 0.0000
-0.3010 DIGDAMAA GADII -0.1249
-0.6021 DIGDAMII LAMA 0.0000
-0.6021 DIGDAMII SADII -0.1761
-0.3010 DIIDIYAR DIROOGBAAN 0.0000
-0.3010 DIROOGBAAN HOOSPITAALASAA 0.0000
-0.3010 DOOKTAR LIYAA 0.0000
-0.6021 DORGOMMII SEEKAAFAA 0.0000
-0.6021 DORGOMMII SHAAMPIYOONAA -0.2218
-0.9031 DORGOMMIIN BEETKIINGII 0.0000
-0.9031 DORGOMMIIN FI -0.2840
-0.9031 DORGOMMIIN LIIGII -0.2218
-0.9031 DORGOMMIIN MAARAATOONII -0.2430
-0.3010 DUBARTOOTA OROMIYAA -0.2430
-0.9031 DURFAMU BUUFATAALEE 0.0000
-0.9031 DURFAMU EESSA -0.1919
-0.9031 DURFAMU MAGAALAA -0.2688
-0.9031 DURFAMU NAANNOO -0.1761
-0.3010 EDA GARA 0.0000
-0.3010 EEGALUUFI MALLATTOO 0.0000
-0.3010 EEGUMSA FAYYAA -0.2499
-0.7404 EENYU </s> -0.3010
-1.2175 EENYU JEDHAMA 0.0000
-1.8195 EENYU JEDHAMTII 0.0000
-1.8195 EENYU JEDHAMTU 0.0000
-0.7056 EENYU JEDHAMU -0.0300
-1.5185 EENYU JEDHAMUU 0.0000
-1.2553 EESSA ARGAMU 0.0000
-0.7782 EESSA DAWWATAN 0.0000
-1.2553 EESSA ERGUF 0.0000
-0.6532 EESSA GALAN 0.0000
-0.3010 EESSAF LAATEE 0.0000
-0.3010 EESSAN GAGGEEFFAME 0.0000
-0.3010 EESSATI GAGGEEFAME 0.0000
-1.5563 EESSATTI </s> -0.3010
-1.5563 EESSATTI ARGAMU 0.0000
-1.5563 EESSATTI GAGGEEFAME 0.0000
-0.5149 EESSATTI GAGGEEFFAME 0.0000
-1.5563 EESSATTI GAGGEEFFAMEE 0.0000
-1.5563 EESSATTI GAGGEFFAME 0.0000
-1.5563 EESSATTI INJIFATEE 0.0000
-1.5563 EESSATTI SAAMEE 0.0000
-0.3010 ERGUF </s> -0.3010
-0.3010 FAGEENYA KILOOMETIRAA 0.0000
-0.3010 FARANSAAY MAGAALAA -0.1549
-1.2553 FAYYAA ADDUNYAA -0.2688
-1.2553 FAYYAA DOOKTAR 0.0000
-0.7782 FAYYAA EENYU -0.1627
-1.2553 FAYYAA IDIL 0.0000
-1.2553 FAYYAA MAGAALAA -0.2852
-0.9542 FAYYAA OROMIYAA -0.0969
-0.3010 FEDEREESHINII ATLEETIKSII -0.0792
-1.4150 FI AFURTAMII -0.1761
-1.4150 FI AGARSIIFNI 0.0000
-1.4150 FI DIGDAMII -0.1761
-1.4150 FI GALTEEWWAN 0.0000
-1.4150 FI GIDDUGALEESSA 0.0000
-1.4150 FI INDAASTIRII -0.1761
-1.4150 FI KALAQAA -0.1761
-1.4150 FI KUDHA -0.2218
-1.4150 FI MAAMILAA 0.0000
-1.4150 FI MAANGOO 0.0000
-1.4150 FI QORANNOO 0.0000
-1.4150 FI QORICHAA 0.0000
-1.4150 FI WALITTI 0.0000
-1.1461 FIIGICHA DAANDIRRAA 0.0000
-1.1461 FIIGICHA DHEERAA 0.0000
-1.1461 FIIGICHA FAGEENYA 0.0000
-1.1461 FIIGICHA KIILOO 0.0000
-0.8451 FIIGICHA MAARAATOONII -0.1761
-1.1461 FIIGICHA MARAATOONII 0.0000
-0.6021 FINFINNEE AADDE 0.0000
-0.6021 FINFINNEE EENYU -0.2139
-0.3010 FINFINNEETTI DAAYREEKTARRI -0.2430
-0.3010 FOONII GARA 0.0000
-0.3010 FURDISA LOONII 0.0000
-0.3010 FUULDURAA BUNA 0.0000
-0.3010 GABAA FI -0.2840
-0.3010 GABREMASQAL CAALAAN 0.0000
-0.7782 GADII INJIFANNOON 0.0000
-0.7782 GADII KOLOMBIYAA 0.0000
-0.7782 GADII QOPHEESSUMMAA 0.0000
-0.3010 GAGGEEFAME </s> -0.3010
-0.3010 GAGGEEFFAME </s> -0.3010
-0.3010 GAGGEEFFAMEE </s> -0.3010
-0.3010 GAGGEFFAME </s> -0.3010
-0.3010 GALAN </s> -0.3010
-0.3010 GALGALA KANA 0.0000
-0.3010 GALTEEWWAN MAGAALAA -0.1549
-0.3010 GARA EESSA -0.1597
-0.3010 GARAAGARAA BIRRII 0.0000
-0.6021 GAREEN KUBBAA -0.1761
-0.6021 GAREEN SHORORKEESSAA 0.0000
-0.3010 GIDDUGALEESSA AFRIKAA -0.2218
-0.3010 GOCHUUN KAN -0.1249
-0.3010 GODINA BOORANAA 0.0000
-0.3010 GOLOBE GALGALA 0.0000
-0.3010 GULAALLII WAANCAA 0.0000
-0.3010 GURRAANDHALA KUDHAA 0.0000
-0.3010 GUUTUU KENNUU 0.0000
-0.3010 GUYYAA YAADANNO 0.0000
-0.3010 HAARAA ITTI -0.2430
-0.3010 HALKAN EDA 0.0000
-0.3010 HAMZAAN DURFAMU -0.2430
-0.6021 HAR’A AFRIKAA -0.1249
-0.6021 HAR’A EESSATTI -0.1427
-0.3010 HIDHAMIINSA NAANNAWAA 0.0000
-0.6021 HOGGANAA ITTAANAAN 0.0000
-0.6021 HOGGANAA ITTI -0.1761
-0.3010 HOGGANAAN BIIROO -0.2218
-0.6021 HOJII FI -0.2840
-0.6021 HOJII RAAWWACHIISAA 0.0000
-0.3010 HOOLAAND KAN -0.2218
-0.3010 HOOSPITAALASAA MAGAALAA -0.1549
-0.3010 HOTEELA EESSATTI -0.1427
-0.3010 IDIL ADDUNYAA -0.2341
-0.3010 II WALIIGALAA -0.1761
-0.3010 IID ALFAXIIR 0.0000
-0.6021 INDAASTIRII OBBO -0.1761
-0.6021 INDAASTIRII SALPHAA 0.0000
-0.3010 INGILIIZ ARSENAAL 0.0000
-0.3010 INGILIZ ASTOONVIILAAN 0.0000
-0.3010 INJIFANNOON GOLOBE 0.0000
-0.3010 INJIFATEE </s> -0.3010
-0.3010 INTARNASHINAALII OROMIYAA -0.0969
-0.3010 ISLAAMUMMAA ITYOOPHIYAA -0.1461
-0.3010 ISTAADIYEEMII EESSATTI -0.1427
-0.3010 ITIYOOPHIYAA EENYU -0.2058
-0.3010 ITOOPHIYAA EENYU -0.2739
-0.3010 ITTAANAAN MANA -0.1761
-0.6021 ITTI AANAAN 0.0000
-0.9031 ITTI AANTUUN 0.0000
-0.9031 ITTI BEEKSISU 0.0000
-0.5229 ITYOOPHIYAA EENYU -0.0613
-1.4771 ITYOOPHIYAA KUDHA -0.2218
-1.4771 ITYOOPHIYAA LAMMUMMAAN 0.0000
-1.1761 ITYOOPHIYAA MARSAA 0.0000
-1.1761 ITYOOPHIYAA SHAAMPIYOONAA -0.1249
-0.3010 ITYOOPHIYAAN OOMISHAALEE 0.0000
-0.3010 ITYOOPHIYAATTI AMBAASADDARRI -0.1761
-0.3010 JAHA TUQAA 0.0000
-0.3010 JALDEESSARRAA NAMATTI 0.0000
-0.3010 JEDHAMA </s> -0.3010
-0.3010 JEDHAMTII </s> -0.3010
-0.3010 JEDHAMTU </s> -0.3010
-0.3332 JEDHAMU </s> -0.3010
-1.4472 JEDHAMU JALDEESSARRAA 0.0000
-0.3010 JEDHAMUU </s> -0.3010
-0.3010 JILA ATLEETIKSII -0.0792
-1.0792 JILLI ABBAA -0.1761
-0.7782 JILLI ATLEETIKSII -0.0792
-0.6021 JILLI MINISTIRA -0.0969
-0.6021 KALAQAA EENYU -0.2058
-0.6021 KALAQAA FI -0.2840
-0.3010 KALEESSA MAGAALAA -0.1549
-0.4771 KAN MUUDE 0.0000
-0.7782 KAN TAATEE 0.0000
-0.3010 KANA EESSA -0.1919
-0.3010 KANTIBAA MAGAALAA -0.2688
-0.3010 KANTIIBAAN MAGAALAA -0.2688
-0.3010 KENNUU EEGALUUFI 0.0000
-0.6021 KIBBAA ISTAADIYEEMII 0.0000
-0.6021 KIBBAA MAGAALAA -0.2688
-0.3010 KIILOO MEETIRA 0.0000
-0.3010 KILABIIN INGILIIZ 0.0000
-0.3010 KILABNI INGILIZ 0.0000
-0.3010 KILOOMETIRAA SHAN 0.0000
-0.3010 KOLOMBIYAA MAGAALAA -0.2852
-0.3010 KOMINIKEESHINII MOOTUMMAA 0.0000
-0.3010 KOORIYAA EESSATTI -0.1427
-0.6021 KUBBAA MIILAA 0.0000
-0.6021 KUBBAA MIILLAA 0.0000
-0.7782 KUDHA SADDEETAFFAAN 0.0000
-0.7782 KUDHA SADII -0.1761
-0.7782 KUDHA TORBAFFAAN 0.0000
-0.3010 KUDHAA LAMAA -0.2218
-0.3010 KUDHAN AMEERIKAA -0.1761
-0.4771 KUMA LAMAA -0.1249
-0.7782 KUMA TOKKO 0.0000
-0.3010 LAATEE </s> -0.3010
-0.3010 LAMA KOORIYAA 0.0000
-0.4771 LAMAA FI -0.2663
-0.7782 LAMAA SABABEEFFACHUUN 0.0000
-0.3010 LAMMUMMAAN HOOLAAND 0.0000
-0.6021 LEENJISAA OLAANAA 0.0000
-0.6021 LEENJISAA TAASIISUUN 0.0000
-0.3010 LEENJISAAN FIIGICHA -0.2688
-0.7782 LIIGII BIYYOOTA -0.1761
-0.7782 LIIGII ITYOOPHIYAA -0.2711
-0.7782 LIIGII KUBBAA -0.1761
-0.3010 LIYAA TAADDASAATIN 0.0000
-0.3010 LOONII EESSA -0.2218
-0.3010 MAALLAQAA EENYU -0.2058
-0.3010 MAAMILAA BAANKII -0.2553
-0.3010 MAANGOO AKKASUMAS 0.0000
-0.9031 MAARAATOONII AFURTAMII -0.1761
-0.9031 MAARAATOONII EESSATTI -0.2888
-0.9031 MAARAATOONII IDIL 0.0000
-0.9031 MAARAATOONII RIILEE 0.0000
-0.3010 MAARIYYEE JEDHAMU -0.2852
-1.1461 MAGAALAA EESSA -0.1597
-1.4472 MAGAALAA EESSATI 0.0000
-0.5441 MAGAALAA EESSATTI -0.0669
-1.1461 MAGAALAA FINFINNEE 0.0000
-1.4472 MAGAALAA FINFINNEETTI 0.0000
-0.3010 MALAAKUU ALLEBALIIN 0.0000
-0.3010 MALLATTOO DALDALAA -0.1761
-0.6021 MANA AMANTII 0.0000
-0.6021 MANA MAREE 0.0000
-0.3010 MARAATOONII ABBABAA 0.0000
-0.3010 MAREE WALIIGALAA -0.1761
-0.3010 MARSAA SADAFFAAN 0.0000
-0.3010 MEEDIKAALAA EENYU -0.2058
-0.3010 MEESHAALEE GARAAGARAA 0.0000
-0.3010 MEETIRA KUDHAN 0.0000
-0.3010 MIILAA DUBARTOOTA 0.0000
-0.3010 MIILIYOONA JAHA 0.0000
-0.3010 MIILLAA AFRIKAA -0.1249
-0.3010 MINISIRRI MINISTEERA -0.1919
-1.2553 MINISTEERA ALBUUDAA 0.0000
-1.2553 MINISTEERA DALDAALAA 0.0000
-1.2553 MINISTEERA DALDALAA -0.1761
-0.6532 MINISTEERA FAYYAA -0.1919
-1.2553 MINISTEERA HOJII -0.1761
-1.2553 MINISTEERA MAALLAQAA 0.0000
-0.4771 MINISTIR DEETAAN 0.0000
-0.7782 MINISTIR DEETTAAN -0.1761
-0.9031 MINISTIRA MAALLAQAA 0.0000
-0.4260 MINISTIRA MINISTEERA -0.1249
-0.3010 MINISTIRAA ITYOOPHIYAA -0.1461
-0.3010 MINISTIRI DEETTAAN -0.1761
-0.3010 MINISTIRRI MINISTEERA -0.2218
-0.3010 MISOOMA ITIYOOPHIYAA 0.0000
-0.3010 MOOTUMMAA EENYU -0.2139
-0.3010 MUUDE EENYU -0.1717
-0.3010 MUUMMEEN MINISTIRAA 0.0000
-0.3010 MUUZII, AVOKAADOO 0.0000
-0.3010 NAANNAWAA OBBO -0.1761
-0.6021 NAANNOO EESSATTI -0.1427
-0.6021 NAANNOO INDAASTIRII -0.1761
-0.3010 NAMATTI DARBU 0.0000
-0.3010 NYAATAA FI -0.2840
-0.6021 OBBO GABREMASQAL 0.0000
-0.6021 OBBO MALAAKUU 0.0000
-0.3010 OLAANAA GOCHUUN 0.0000
-0.6021 OLAANAAN BAANKI 0.0000
-0.6021 OLAANAAN DHAABBATA 0.0000
-0.3010 OLAANTUUN ABBAA -0.1761
-0.3010 OOMISHA FOONII 0.0000
-0.3010 OOMISHAALEE AKKA 0.0000
-0.4260 OROMIYAA EENYU -0.0943
-0.9031 OROMIYAA MARSAA 0.0000
-0.3010 ORTODOKSII ITOOPHIYAA 0.0000
-0.6021 PREEZDAANTII BAANKII -0.2553
-0.6021 PREEZDAANTII FEDEREESHINII 0.0000
-0.4771 PREEZDAANTIIN BAANKII -0.2041
-0.7782 PREEZDAANTIIN MANA -0.1761
-0.3010 PRIIMAYEER LIIGII -0.2218
-0.3010 QABEENYAA SAA 0.0000
-0.3010 QOPHEESSUMMAA EESSAN 0.0000
-0.3010 QORANNOO BARA 0.0000
-0.3010 QORICHAA ITYOOPHIYAA -0.1461
-0.3010 RAAWWACHIISAA OLAANAAN -0.1761
-0.3010 RIILEE ITYOOPHIYAA -0.2863
-0.3010 SAA UD 0.0000
-0.3010 SAAMEE </s> -0.3010
-0.3010 SABABEEFFACHUUN EESSA -0.2218
-0.3010 SADAAFFAAN EESSATTI -0.1427
-0.7782 SADAFFAAN HALKAN 0.0000
-0.7782 SADAFFAAN KALEESSA 0.0000
-0.7782 SADAFFAAN MAGAALAA -0.1549
-0.3010 SADDEETAAFFAA MAGAALAA -0.1549
-0.3010 SADDEETAFFAA HAR’A -0.1761
-0.3010 SADDEETAFFAAN AMEERIKAA -0.1761
-0.6021 SADII GADII -0.2218
-0.6021 SADII NAANNOO -0.1761
-0.3010 SALPHAA EESSA -0.2218
-0.3010 SANBAREE TAFARIIN 0.0000
-0.3010 SARARA FUULDURAA 0.0000
-0.3010 SEEKAAFAA UMRII 0.0000
-0.7782 SHAAMPIYOONAA ADDUNYAA -0.2341
-0.7782 SHAAMPIYOONAA ATILEETIKSII 0.0000
-0.7782 SHAAMPIYOONAA ATLEETIKSII -0.2553
-0.3010 SHAAMPIYOONSI LIIGII -0.2218
-0.3010 SHAN FARANSAAY 0.0000
-0.3010 SHANAAFFAA EESSATTI -0.2888
-0.3010 SHEEHI HAMZAAN 0.0000
-0.3010 SHORORKEESSAA ABUT 0.0000
-0.3010 SIINQEE WALTAJJII 0.0000
-0.3010 SODDOMII SADDEETAAFFAA 0.0000
-0.3010 TAADDASAATIN DURFAMU -0.2430
-0.3010 TAASIISUUN KAN -0.1249
-0.3010 TAATEE ATILEET 0.0000
-0.3010 TAAYITAA NYAATAA 0.0000
-0.3010 TAFARIIN FIIGICHA -0.2688
-0.7782 TAJAAJILA BAANKII -0.2553
-0.7782 TAJAAJILA KOMINIKEESHINII 0.0000
-0.7782 TAJAAJILA MEEDIKAALAA 0.0000
-0.3010 TAPHA GULAALLII 0.0000
-0.3010 TAPHATAAN SARARA 0.0000
-0.3010 TEEKNOOLOOJII, KALAQAA -0.1761
-0.3010 TILMAMAMU EESSAF 0.0000
-0.3010 TOANNOO BANKII 0.0000
-0.3010 TOKKO DHIBBA 0.0000
-0.3010 TORBAATAMII SHANAAFFAA 0.0000
-0.3010 TORBAFFAAN MAGAALAA -0.1549
-0.3010 TUQAA AFURITTI 0.0000
-0.3010 UD ARABIYAA 0.0000
-0.3010 UMRII WAGGAA -0.0969
-0.3010 USAID DEEGGARSA 0.0000
-0.3010 WAANCAA ADDUNYAA -0.2688
-0.6021 WAGGAA DIGDAMAA 0.0000
-0.9031 WAGGAA DIGDAMII -0.1761
-0.9031 WAGGAA KUMA -0.2218
-0.3010 WALAKKAA MAARAATOONII -0.2430
-0.6021 WALIIGALAA DHAABBATA 0.0000
-0.6021 WALIIGALAA DHIMMA 0.0000
-0.3010 WALITTI HIDHAMIINSA 0.0000
-0.3010 WALTAJJII TAJAAJILA -0.2218
-0.3010 WAREEGAMTOOTAA GURRAANDHALA 0.0000
-0.3010 WARSHAALEE FI -0.2840
-0.3010 YAA II 0.0000
-0.3010 YAADANNO WAREEGAMTOOTAA 0.0000

\3-grams:
-0.3010 <s> AMEERIKAATTI AMBAASADDARRI
-0.3010 <s> ATLEET SANBAREE
-0.3010 <s> AYYAANNI IID
-0.3010 <s> BAANKIIN SIINQEE
-0.3010 <s> BIIROO FAYYAA
-0.3010 <s> BULCHAAN GODINA
-0.3010 <s> CHAAYINAATTI AMBAASAADDARRI
-0.7782 <s> DAAYREEKTARRI GABAA
-0.7782 <s> DAAYREEKTARRI OLAANAAN
-0.7782 <s> DAAYREEKTARRI OLAANTUUN
-0.3010 <s> DAAYREKTARRI TOANNOO
-0.3010 <s> DHAABBANNI USAID
-0.3010 <s> DHALATTUU ITYOOPHIYAA
-0.3010 <s> DHIBEEN MAARIYYEE
-0.3010 <s> DIIDIYAR DIROOGBAAN
-0.6021 <s> DORGOMMII SEEKAAFAA
-0.6021 <s> DORGOMMII SHAAMPIYOONAA
-0.9031 <s> DORGOMMIIN BEETKIINGII
-0.9031 <s> DORGOMMIIN FI
-0.9031 <s> DORGOMMIIN LIIGII
-0.9031 <s> DORGOMMIIN MAARAATOONII
-1.0000 <s> FIIGICHA FAGEENYA
-1.0000 <s> FIIGICHA KIILOO
-0.6990 <s> FIIGICHA MAARAATOONII
-1.0000 <s> FIIGICHA MARAATOONII
-0.6021 <s> GAREEN KUBBAA
-0.6021 <s> GAREEN SHORORKEESSAA
-0.6021 <s> HOGGANAA ITTAANAAN
-0.6021 <s> HOGGANAA ITTI
-0.3010 <s> HOGGANAAN BIIROO
-0.3010 <s> HOJII RAAWWACHIISAA
-0.6021 <s> ITTI AANAAN
-0.6021 <s> ITTI AANTUUN
-0.3010 <s> ITYOOPHIYAAN OOMISHAALEE
-0.3010 <s> ITYOOPHIYAATTI AMBAASADDARRI
-0.3010 <s> JILA ATLEETIKSII
-1.0792 <s> JILLI ABBAA
-0.7782 <s> JILLI ATLEETIKSII
-0.6021 <s> JILLI MINISTIRA
-0.3010 <s> KANTIIBAAN MAGAALAA
-0.3010 <s> KILABIIN INGILIIZ
-0.3010 <s> KILABNI INGILIZ
-0.3010 <s> LEENJISAAN FIIGICHA
-0.3010 <s> MINISIRRI MINISTEERA
-0.4771 <s> MINISTIR DEETAAN
-0.7782 <s> MINISTIR DEETTAAN
-0.3010 <s> MINISTIRI DEETTAAN
-0.3010 <s> MINISTIRRI MINISTEERA
-0.3010 <s> MUUMMEEN MINISTIRAA
-0.3010 <s> PREEZDAANTII FEDEREESHINII
-0.4771 <s> PREEZDAANTIIN BAANKII
-0.7782 <s> PREEZDAANTIIN MANA
-0.3010 <s> SHAAMPIYOONSI LIIGII
-0.3010 <s> TAPHA GULAALLII
-0.3010 <s> TAPHATAAN SARARA
-0.3010 <s> YAA II
-0.3010 AADDE ADAANACH ABEEBEEN
-0.3010 AANAAN BIIROO FAYYAA
-0.3010 AANAAN PREEZDAANTII BAANKII
-0.3010 AANTUUN KANTIBAA MAGAALAA
-0.3010 ABBAA QABEENYAA SAA
-0.3010 ABBAA TAAYITAA NYAATAA
-0.3010 ABBABAA BIQILAA SODDOMII
-0.3010 ABEEBEEN GUYYAA YAADANNO
-0.3010 ABUT WARSHAALEE FI
-0.3010 ADAANACH ABEEBEEN GUYYAA
-0.3010 ADDUNYAA BARA KUMA
-0.3010 ADDUNYAA EENYU JEDHAMU
-0.3010 ADDUNYAA HAR’A AFRIKAA
-0.3010 ADDUNYAA KUDHA SADDEETAFFAAN
-0.3010 ADDUNYAA TORBAATAMII SHANAAFFAA
-0.3010 ADDUNYAA UMRII WAGGAA
-0.6021 AFRIKAA KIBBAA ISTAADIYEEMII
-0.6021 AFRIKAA KIBBAA MAGAALAA
-0.3010 AFRIKAA QOPHEESSUMMAA EESSAN
-0.3010 AFUR FI AFURTAMII
-0.3010 AFURITTI TILMAMAMU EESSAF
-0.3010 AFURTAMII SADAAFFAAN EESSATTI
-0.3010 AFURTAMII SADDEETAFFAA HAR’A
-0.3010 AGARSIIFNI TEEKNOOLOOJII, KALAQAA
-0.3010 AKKA MUUZII, AVOKAADOO
-0.3010 AKKASUMAS OOMISHA FOONII
-0.3010 ALBUUDAA EENYU </s>
-0.3010 ALFAXIIR WAGGAA KUMA
-0.3010 ALLEBALIIN DURFAMU NAANNOO
-0.3010 AMANTII ORTODOKSII ITOOPHIYAA
-0.3010 AMBAASAADDARRI ITYOOPHIYAA EENYU
-0.3010 AMBAASADDARRI CHAAYINAA EENYU
-0.3010 AMBAASADDARRI ITYOOPHIYAA EENYU
-0.3010 AMEERIKAA EESSATTI GAGGEEFFAME
-0.3010 AMEERIKAA MAGAALAA EESSATTI
-0.3010 AMEERIKAATTI AMBAASADDARRI ITYOOPHIYAA
-0.3010 ARABIYAA SHEEHI HAMZAAN
-0.3010 ARSENAAL LEENJISAA OLAANAA
-0.3010 ASTOONVIILAAN LEENJISAA TAASIISUUN
-0.3010 ATILEET EENYU JEDHAMTII
-0.3010 ATILEETIKSII ADDUNYAA KUDHA
-0.3010 ATLEET SANBAREE TAFARIIN
-0.3010 ATLEETIKSII ADDUNYAA UMRII
-0.9031 ATLEETIKSII ITYOOPHIYAA EENYU
-0.9031 ATLEETIKSII ITYOOPHIYAA MARSAA
-0.6021 ATLEETIKSII ITYOOPHIYAA SHAAMPIYOONAA
-0.3010 AVOKAADOO FI MAANGOO
-0.3010 AWAASH EENYU JEDHAMU
-0.3010 AYYAANNI IID ALFAXIIR
-0.3010 BAANKI AWAASH EENYU
-0.3010 BAANKII DAASHAN EENYU
-0.3010 BAANKII DALADALA ITYOOPHIYAA
-0.3010 BAANKII GUUTUU KENNUU
-0.3010 BAANKII INTARNASHINAALII OROMIYAA
-0.3010 BAANKII MISOOMA ITIYOOPHIYAA
-0.3010 BAANKIIN SIINQEE WALTAJJII
-0.3010 BAHAA FI GIDDUGALEESSA
-0.3010 BANKII BIYYAALESSAA ITYOOPHIYAA
-0.3010 BARA KUMA LAMAA
-0.3010 BEEKSISU HOTEELA EESSATTI
-0.3010 BEETKIINGII PRIIMAYEER LIIGII
-0.3010 BIIROO EEGUMSA FAYYAA
-0.6021 BIIROO FAYYAA MAGAALAA
-0.6021 BIIROO FAYYAA OROMIYAA
-0.3010 BIQILAA SODDOMII SADDEETAAFFAA
-0.3010 BIRRII MIILIYOONA JAHA
-0.3010 BIYYAALESSAA ITYOOPHIYAA EENYU
-0.3010 BIYYOOTA BAHAA FI
-0.3010 BIYYOOTA EESSATTI </s>
-0.3010 BOORANAA EENYU JEDHAMA
-0.3010 BULCHAAN GODINA BOORANAA
-0.3010 BUNA ITYOOPHIYAA EENYU
-0.3010 BUUFATAALEE FURDISA LOONII
-0.3010 CAALAAN DURFAMU BUUFATAALEE
-0.3010 CHAAYINAA EENYU </s>
-0.3010 CHAAYINAATTI AMBAASAADDARRI ITYOOPHIYAA
-0.3010 DAANDIRRAA WALAKKAA MAARAATOONII
-0.3010 DAASHAN EENYU JEDHAMU
-0.3010 DAAYREEKTARRI GABAA FI
-0.3010 DAAYREEKTARRI OLAANAAN DHAABBATA
-0.3010 DAAYREEKTARRI OLAANTUUN ABBAA
-0.3010 DAAYREEKTARRI TAJAAJILA MEEDIKAALAA
-0.3010 DAAYREKTARRI TOANNOO BANKII
-0.3010 DALADALA ITYOOPHIYAA EENYU
-0.3010 DALDAALAA FI INDAASTIRII
-0.3010 DALDALAA FI WALITTI
-0.3010 DALDALAA HAARAA ITTI
-0.3010 DARBU BIYYOOTA EESSATTI
-0.3010 DEEGGARSA MEESHAALEE GARAAGARAA
-0.3010 DEETAAN MINISTEERA FAYYAA
-0.3010 DEETAAN TAJAAJILA KOMINIKEESHINII
-0.3010 DEETTAAN MINISTEERA FAYYAA
-0.3010 DEETTAAN MINISTIRA MAALLAQAA
-0.3010 DHAABBANNI USAID DEEGGARSA
-0.6021 DHAABBATA FAYYAA ADDUNYAA
-0.6021 DHAABBATA FAYYAA IDIL
-0.3010 DHALATTUU ITYOOPHIYAA LAMMUMMAAN
-0.3010 DHEERAA EENYU </s>
-0.3010 DHIBBA AFUR FI
-0.3010 DHIBEEN MAARIYYEE JEDHAMU
-0.3010 DHIMMA ISLAAMUMMAA ITYOOPHIYAA
-0.6021 DIGDAMAA GADII INJIFANNOON
-0.6021 DIGDAMAA GADII KOLOMBIYAA
-0.3010 DIGDAMII LAMA KOORIYAA
-0.3010 DIGDAMII SADII GADII
-0.3010 DIIDIYAR DIROOGBAAN HOOSPITAALASAA
-0.3010 DIROOGBAAN HOOSPITAALASAA MAGAALAA
-0.3010 DOOKTAR LIYAA TAADDASAATIN
-0.3010 DORGOMMII SEEKAAFAA UMRII
-0.3010 DORGOMMII SHAAMPIYOONAA ATILEETIKSII
-0.3010 DORGOMMIIN BEETKIINGII PRIIMAYEER
-0.3010 DORGOMMIIN FI AGARSIIFNI
-0.3010 DORGOMMIIN LIIGII KUBBAA
-0.3010 DORGOMMIIN MAARAATOONII RIILEE
-0.3010 DUBARTOOTA OROMIYAA MARSAA
-0.3010 DURFAMU BUUFATAALEE FURDISA
-0.3010 DURFAMU EESSA GALAN
-0.3010 DURFAMU MAGAALAA EESSA
-0.3010 DURFAMU NAANNOO INDAASTIRII
-0.3010 EDA GARA EESSA
-0.3010 EEGALUUFI MALLATTOO DALDALAA
-0.3010 EEGUMSA FAYYAA OROMIYAA
-0.3010 EENYU JEDHAMA </s>
-0.3010 EENYU JEDHAMTII </s>
-0.3010 EENYU JEDHAMTU </s>
-0.3010 EENYU JEDHAMU </s>
-0.3010 EENYU JEDHAMUU </s>
-0.3010 EESSA ARGAMU </s>
-0.3010 EESSA DAWWATAN </s>
-0.3010 EESSA ERGUF </s>
-0.3010 EESSA GALAN </s>
-0.3010 EESSAF LAATEE </s>
-0.3010 EESSAN GAGGEEFFAME </s>
-0.3010 EESSATI GAGGEEFAME </s>
-0.3010 EESSATTI ARGAMU </s>
-0.3010 EESSATTI GAGGEEFAME </s>
-0.3010 EESSATTI GAGGEEFFAME </s>
-0.3010 EESSATTI GAGGEEFFAMEE </s>
-0.3010 EESSATTI GAGGEFFAME </s>
-0.3010 EESSATTI INJIFATEE </s>
-0.3010 EESSATTI SAAMEE </s>
-0.3010 FAGEENYA KILOOMETIRAA SHAN
-0.3010 FARANSAAY MAGAALAA EESSATTI
-0.3010 FAYYAA ADDUNYAA TORBAATAMII
-0.3010 FAYYAA DOOKTAR LIYAA
-0.7782 FAYYAA EENYU </s>
-0.7782 FAYYAA EENYU JEDHAMA
-0.7782 FAYYAA EENYU JEDHAMUU
-0.3010 FAYYAA IDIL ADDUNYAA
-0.3010 FAYYAA MAGAALAA FINFINNEETTI
-0.3010 FAYYAA OROMIYAA EENYU
-0.3010 FEDEREESHINII ATLEETIKSII ITYOOPHIYAA
-0.3010 FI AFURTAMII SADAAFFAAN
-0.3010 FI AGARSIIFNI TEEKNOOLOOJII,
-0.3010 FI DIGDAMII LAMA
-0.3010 FI GALTEEWWAN MAGAALAA
-0.3010 FI GIDDUGALEESSA AFRIKAA
-0.3010 FI INDAASTIRII OBBO
-0.3010 FI KALAQAA EENYU
-0.3010 FI KUDHA SADII
-0.3010 FI MAAMILAA BAANKII
-0.3010 FI MAANGOO AKKASUMAS
-0.3010 FI QORANNOO BARA
-0.3010 FI QORICHAA ITYOOPHIYAA
-0.3010 FI WALITTI HIDHAMIINSA
-0.3010 FIIGICHA DAANDIRRAA WALAKKAA
-0.3010 FIIGICHA DHEERAA EENYU
-0.3010 FIIGICHA FAGEENYA KILOOMETIRAA
-0.3010 FIIGICHA KIILOO MEETIRA
-0.6021 FIIGICHA MAARAATOONII AFURTAMII
-0.6021 FIIGICHA MAARAATOONII IDIL
-0.3010 FIIGICHA MARAATOONII ABBABAA
-0.3010 FINFINNEE AADDE ADAANACH
-0.3010 FINFINNEE EENYU </s>
-0.3010 FINFINNEETTI DAAYREEKTARRI TAJAAJILA
-0.3010 FOONII GARA EESSA
-0.3010 FURDISA LOONII EESSA
-0.3010 FUULDURAA BUNA ITYOOPHIYAA
-0.3010 GABAA FI MAAMILAA
-0.3010 GABREMASQAL CAALAAN DURFAMU
-0.3010 GADII INJIFANNOON GOLOBE
-0.3010 GADII KOLOMBIYAA MAGAALAA
-0.3010 GADII QOPHEESSUMMAA EESSAN
-0.3010 GALGALA KANA EESSA
-0.3010 GALTEEWWAN MAGAALAA EESSATTI
-0.6021 GARA EESSA ERGUF
-0.6021 GARA EESSA GALAN
-0.3010 GARAAGARAA BIRRII MIILIYOONA
-0.3010 GAREEN KUBBAA MIILLAA
-0.3010 GAREEN SHORORKEESSAA ABUT
-0.3010 GIDDUGALEESSA AFRIKAA QOPHEESSUMMAA
-0.3010 GOCHUUN KAN MUUDE
-0.3010 GODINA BOORANAA EENYU
-0.3010 GOLOBE GALGALA KANA
-0.3010 GULAALLII WAANCAA ADDUNYAA
-0.3010 GURRAANDHALA KUDHAA LAMAA
-0.3010 GUUTUU KENNUU EEGALUUFI
-0.3010 GUYYAA YAADANNO WAREEGAMTOOTAA
-0.3010 HAARAA ITTI BEEKSISU
-0.3010 HALKAN EDA GARA
-0.3010 HAMZAAN DURFAMU EESSA
-0.3010 HAR’A AFRIKAA KIBBAA
-0.3010 HAR’A EESSATTI GAGGEEFFAME
-0.3010 HIDHAMIINSA NAANNAWAA OBBO
-0.3010 HOGGANAA ITTAANAAN MANA
-0.3010 HOGGANAA ITTI AANAAN
-0.3010 HOGGANAAN BIIROO EEGUMSA
-0.3010 HOJII FI KALAQAA
-0.3010 HOJII RAAWWACHIISAA OLAANAAN
-0.3010 HOOLAAND KAN TAATEE
-0.3010 HOOSPITAALASAA MAGAALAA EESSATTI
-0.3010 HOTEELA EESSATTI GAGGEEFFAME
-0.6021 IDIL ADDUNYAA BARA
-0.6021 IDIL ADDUNYAA EENYU
-0.3010 II WALIIGALAA DHAABBATA
-0.3010 IID ALFAXIIR WAGGAA
-0.3010 INDAASTIRII OBBO MALAAKUU
-0.3010 INDAASTIRII SALPHAA EESSA
-0.3010 INGILIIZ ARSENAAL LEENJISAA
-0.3010 INGILIZ ASTOONVIILAAN LEENJISAA
-0.3010 INJIFANNOON GOLOBE GALGALA
-0.3010 INTARNASHINAALII OROMIYAA EENYU
-0.3010 ISLAAMUMMAA ITYOOPHIYAA EENYU
-0.3010 ISTAADIYEEMII EESSATTI GAGGEEFFAME
-0.3010 ITIYOOPHIYAA EENYU JEDHAMU
-0.3010 ITOOPHIYAA EENYU JEDHAMA
-0.3010 ITTAANAAN MANA AMANTII
-0.6021 ITTI AANAAN BIIROO
-0.6021 ITTI AANAAN PREEZDAANTII
-0.3010 ITTI AANTUUN KANTIBAA
-0.3010 ITTI BEEKSISU HOTEELA
-0.5563 ITYOOPHIYAA EENYU </s>
-1.2553 ITYOOPHIYAA EENYU JEDHAMTU
-0.9542 ITYOOPHIYAA EENYU JEDHAMU
-1.2553 ITYOOPHIYAA EENYU JEDHAMUU
-0.3010 ITYOOPHIYAA KUDHA TORBAFFAAN
-0.3010 ITYOOPHIYAA LAMMUMMAAN HOOLAAND
-0.3010 ITYOOPHIYAA MARSAA SADAFFAAN
-0.6021 ITYOOPHIYAA SHAAMPIYOONAA ADDUNYAA
-0.6021 ITYOOPHIYAA SHAAMPIYOONAA ATLEETIKSII
-0.3010 ITYOOPHIYAAN OOMISHAALEE AKKA
-0.3010 ITYOOPHIYAATTI AMBAASADDARRI CHAAYINAA
-0.3010 JAHA TUQAA AFURITTI
-0.3010 JALDEESSARRAA NAMATTI DARBU
-0.3010 JEDHAMU JALDEESSARRAA NAMATTI
-0.3010 JILA ATLEETIKSII ITYOOPHIYAA
-0.3010 JILLI ABBAA QABEENYAA
-0.3010 JILLI ATLEETIKSII ITYOOPHIYAA
-0.3010 JILLI MINISTIRA MINISTEERA
-0.3010 KALAQAA EENYU JEDHAMU
-0.3010 KALAQAA FI QORANNOO
-0.3010 KALEESSA MAGAALAA EESSATTI
-0.3010 KAN MUUDE EENYU
-0.3010 KAN TAATEE ATILEET
-0.3010 KANA EESSA GALAN
-0.3010 KANTIBAA MAGAALAA FINFINNEE
-0.3010 KANTIIBAAN MAGAALAA FINFINNEE
-0.3010 KENNUU EEGALUUFI MALLATTOO
-0.3010 KIBBAA ISTAADIYEEMII EESSATTI
-0.3010 KIBBAA MAGAALAA EESSA
-0.3010 KIILOO MEETIRA KUDHAN
-0.3010 KILABIIN INGILIIZ ARSENAAL
-0.3010 KILABNI INGILIZ ASTOONVIILAAN
-0.3010 KILOOMETIRAA SHAN FARANSAAY
-0.3010 KOLOMBIYAA MAGAALAA EESSATI
-0.3010 KOMINIKEESHINII MOOTUMMAA EENYU
-0.3010 KOORIYAA EESSATTI GAGGEEFFAME
-0.3010 KUBBAA MIILAA DUBARTOOTA
-0.3010 KUBBAA MIILLAA AFRIKAA
-0.3010 KUDHA SADDEETAFFAAN AMEERIKAA
-0.3010 KUDHA SADII NAANNOO
-0.3010 KUDHA TORBAFFAAN MAGAALAA
-0.3010 KUDHAA LAMAA SABABEEFFACHUUN
-0.3010 KUDHAN AMEERIKAA MAGAALAA
-0.3010 KUMA LAMAA FI
-0.3010 KUMA TOKKO DHIBBA
-0.3010 LAMA KOORIYAA EESSATTI
-0.6021 LAMAA FI DIGDAMII
-0.6021 LAMAA FI KUDHA
-0.3010 LAMAA SABABEEFFACHUUN EESSA
-0.3010 LAMMUMMAAN HOOLAAND KAN
-0.3010 LEENJISAA OLAANAA GOCHUUN
-0.3010 LEENJISAA TAASIISUUN KAN
-0.3010 LEENJISAAN FIIGICHA DHEERAA
-0.3010 LIIGII BIYYOOTA BAHAA
-0.3010 LIIGII ITYOOPHIYAA MARSAA
-0.3010 LIIGII KUBBAA MIILAA
-0.3010 LIYAA TAADDASAATIN DURFAMU
-0.3010 LOONII EESSA DAWWATAN
-0.3010 MAALLAQAA EENYU JEDHAMU
-0.3010 MAAMILAA BAANKII DAASHAN
-0.3010 MAANGOO AKKASUMAS OOMISHA
-0.3010 MAARAATOONII AFURTAMII SADDEETAFFAA
-0.3010 MAARAATOONII EESSATTI INJIFATEE
-0.3010 MAARAATOONII IDIL ADDUNYAA
-0.3010 MAARAATOONII RIILEE ITYOOPHIYAA
-0.3010 MAARIYYEE JEDHAMU JALDEESSARRAA
-0.6021 MAGAALAA EESSA ARGAMU
-0.6021 MAGAALAA EESSA GALAN
-0.3010 MAGAALAA EESSATI GAGGEEFAME
-1.2041 MAGAALAA EESSATTI ARGAMU
-0.6021 MAGAALAA EESSATTI GAGGEEFFAME
-1.2041 MAGAALAA EESSATTI GAGGEEFFAMEE
-1.2041 MAGAALAA EESSATTI GAGGEFFAME
-1.2041 MAGAALAA EESSATTI SAAMEE
-0.6021 MAGAALAA FINFINNEE AADDE
-0.6021 MAGAALAA FINFINNEE EENYU
-0.3010 MAGAALAA FINFINNEETTI DAAYREEKTARRI
-0.3010 MALAAKUU ALLEBALIIN DURFAMU
-0.3010 MALLATTOO DALDALAA HAARAA
-0.3010 MANA AMANTII ORTODOKSII
-0.3010 MANA MAREE WALIIGALAA
-0.3010 MARAATOONII ABBABAA BIQILAA
-0.3010 MAREE WALIIGALAA DHIMMA
-0.7782 MARSAA SADAFFAAN HALKAN
-0.7782 MARSAA SADAFFAAN KALEESSA
-0.7782 MARSAA SADAFFAAN MAGAALAA
-0.3010 MEEDIKAALAA EENYU JEDHAMU
-0.3010 MEESHAALEE GARAAGARAA BIRRII
-0.3010 MEETIRA KUDHAN AMEERIKAA
-0.3010 MIILAA DUBARTOOTA OROMIYAA
-0.3010 MIILIYOONA JAHA TUQAA
-0.3010 MIILLAA AFRIKAA KIBBAA
-0.3010 MINISIRRI MINISTEERA FAYYAA
-0.3010 MINISTEERA ALBUUDAA EENYU
-0.3010 MINISTEERA DALDAALAA FI
-0.3010 MINISTEERA DALDALAA FI
-0.9031 MINISTEERA FAYYAA DOOKTAR
-0.4260 MINISTEERA FAYYAA EENYU
-0.3010 MINISTEERA HOJII FI
-0.3010 MINISTEERA MAALLAQAA EENYU
-0.6021 MINISTIR DEETAAN MINISTEERA
-0.6021 MINISTIR DEETAAN TAJAAJILA
-0.3010 MINISTIR DEETTAAN MINISTEERA
-0.3010 MINISTIRA MAALLAQAA EENYU
-0.7782 MINISTIRA MINISTEERA DALDAALAA
-0.7782 MINISTIRA MINISTEERA DALDALAA
-0.7782 MINISTIRA MINISTEERA FAYYAA
-0.3010 MINISTIRAA ITYOOPHIYAA EENYU
-0.3010 MINISTIRI DEETTAAN MINISTIRA
-0.7782 MINISTIRRI MINISTEERA ALBUUDAA
-0.7782 MINISTIRRI MINISTEERA HOJII
-0.7782 MINISTIRRI MINISTEERA MAALLAQAA
-0.3010 MISOOMA ITIYOOPHIYAA EENYU
-0.3010 MOOTUMMAA EENYU </s>
-0.6021 MUUDE EENYU JEDHAMA
-0.6021 MUUDE EENYU JEDHAMU
-0.3010 MUUMMEEN MINISTIRAA ITYOOPHIYAA
-0.3010 MUUZII, AVOKAADOO FI
-0.3010 NAANNAWAA OBBO GABREMASQAL
-0.3010 NAANNOO EESSATTI GAGGEEFFAME
-0.3010 NAANNOO INDAASTIRII SALPHAA
-0.3010 NAMATTI DARBU BIYYOOTA
-0.3010 NYAATAA FI QORICHAA
-0.3010 OBBO GABREMASQAL CAALAAN
-0.3010 OBBO MALAAKUU ALLEBALIIN
-0.3010 OLAANAA GOCHUUN KAN
-0.3010 OLAANAAN BAANKI AWAASH
-0.3010 OLAANAAN DHAABBATA FAYYAA
-0.3010 OLAANTUUN ABBAA TAAYITAA
-0.3010 OOMISHA FOONII GARA
-0.3010 OOMISHAALEE AKKA MUUZII,
-0.7782 OROMIYAA EENYU </s>
-0.4771 OROMIYAA EENYU JEDHAMU
-0.3010 OROMIYAA MARSAA SADAFFAAN
-0.3010 ORTODOKSII ITOOPHIYAA EENYU
-0.3010 PREEZDAANTII BAANKII INTARNASHINAALII
-0.3010 PREEZDAANTII FEDEREESHINII ATLEETIKSII
-0.6021 PREEZDAANTIIN BAANKII DALADALA
-0.6021 PREEZDAANTIIN BAANKII MISOOMA
-0.3010 PREEZDAANTIIN MANA MAREE
-0.3010 PRIIMAYEER LIIGII ITYOOPHIYAA
-0.3010 QABEENYAA SAA UD
-0.3010 QOPHEESSUMMAA EESSAN GAGGEEFFAME
-0.3010 QORANNOO BARA KUMA
-0.3010 QORICHAA ITYOOPHIYAA EENYU
-0.3010 RAAWWACHIISAA OLAANAAN BAANKI
-0.3010 RIILEE ITYOOPHIYAA KUDHA
-0.3010 SAA UD ARABIYAA
-0.3010 SABABEEFFACHUUN EESSA DAWWATAN
-0.3010 SADAAFFAAN EESSATTI GAGGEEFFAME
-0.3010 SADAFFAAN HALKAN EDA
-0.3010 SADAFFAAN KALEESSA MAGAALAA
-0.3010 SADAFFAAN MAGAALAA EESSATTI
-0.3010 SADDEETAAFFAA MAGAALAA EESSATTI
-0.3010 SADDEETAFFAA HAR’A EESSATTI
-0.3010 SADDEETAFFAAN AMEERIKAA EESSATTI
-0.3010 SADII GADII QOPHEESSUMMAA
-0.3010 SADII NAANNOO EESSATTI
-0.3010 SALPHAA EESSA DAWWATAN
-0.3010 SANBAREE TAFARIIN FIIGICHA
-0.3010 SARARA FUULDURAA BUNA
-0.3010 SEEKAAFAA UMRII WAGGAA
-0.3010 SHAAMPIYOONAA ADDUNYAA UMRII
-0.3010 SHAAMPIYOONAA ATILEETIKSII ADDUNYAA
-0.3010 SHAAMPIYOONAA ATLEETIKSII ADDUNYAA
-0.3010 SHAAMPIYOONSI LIIGII BIYYOOTA
-0.3010 SHAN FARANSAAY MAGAALAA
-0.3010 SHANAAFFAA EESSATTI GAGGEEFAME
-0.3010 SHEEHI HAMZAAN DURFAMU
-0.3010 SHORORKEESSAA ABUT WARSHAALEE
-0.3010 SIINQEE WALTAJJII TAJAAJILA
-0.3010 SODDOMII SADDEETAAFFAA MAGAALAA
-0.3010 TAADDASAATIN DURFAMU MAGAALAA
-0.3010 TAASIISUUN KAN MUUDE
-0.3010 TAATEE ATILEET EENYU
-0.3010 TAAYITAA NYAATAA FI
-0.3010 TAFARIIN FIIGICHA DAANDIRRAA
-0.3010 TAJAAJILA BAANKII GUUTUU
-0.3010 TAJAAJILA KOMINIKEESHINII MOOTUMMAA
-0.3010 TAJAAJILA MEEDIKAALAA EENYU
-0.3010 TAPHA GULAALLII WAANCAA
-0.3010 TAPHATAAN SARARA FUULDURAA
-0.3010 TEEKNOOLOOJII, KALAQAA FI
-0.3010 TILMAMAMU EESSAF LAATEE
-0.3010 TOANNOO BANKII BIYYAALESSAA
-0.3010 TOKKO DHIBBA AFUR
-0.3010 TORBAATAMII SHANAAFFAA EESSATTI
-0.3010 TORBAFFAAN MAGAALAA EESSATTI
-0.3010 TUQAA AFURITTI TILMAMAMU
-0.3010 UD ARABIYAA SHEEHI
-0.4771 UMRII WAGGAA DIGDAMAA
-0.7782 UMRII WAGGAA DIGDAMII
-0.3010 USAID DEEGGARSA MEESHAALEE
-0.3010 WAANCAA ADDUNYAA HAR’A
-0.3010 WAGGAA DIGDAMAA GADII
-0.3010 WAGGAA DIGDAMII SADII
-0.3010 WAGGAA KUMA TOKKO
-0.3010 WALAKKAA MAARAATOONII EESSATTI
-0.3010 WALIIGALAA DHAABBATA FAYYAA
-0.3010 WALIIGALAA DHIMMA ISLAAMUMMAA
-0.3010 WALITTI HIDHAMIINSA NAANNAWAA
-0.3010 WALTAJJII TAJAAJILA BAANKII
-0.3010 WAREEGAMTOOTAA GURRAANDHALA KUDHAA
-0.3010 WARSHAALEE FI GALTEEWWAN
-0.3010 YAA II WALIIGALAA
-0.3010 YAADANNO WAREEGAMTOOTAA GURRAANDHALA

\end\
